{"precision":"double","biases":["0.1530337744087583","-0.0114630049255397","-0.2094322086976401","-0.8141586147453079","-0.8223520686740229","0.5305155747839503","0.3577795171365738","-0.8183267073707785","0.3010560976439716","-0.3027963302718184","0.2750627671220355","0.7366318756849473","-0.2078501264278968","0.5806845136216567","-0.0638027246145295","0.2326541132894846","-0.4218907915989741","0.5536481594887028","-0.0306630400114050","-0.8570694529725697","-0.8363630831952805","0.3329383572436759","-0.5528241179728682","0.3929667805218062","-0.3042720143442779","0.0541652467346400","-0.3608257180182182","0.5326369884298150","0.3489510558805470","-0.3622783334301994"],"weights":["-0.0535944129986690","-0.5263138077443158","0.3091068267263192","0.5059122367240441","0.5814091834763660","-0.1077189649158430","0.3982846790694489","0.8649195184251791","-0.2386963234274544","0.9175986351623691","0.1736517417637280","0.4923908053261981","-0.8556314039626650","-0.1052962593162385","-0.1542359601049050","-0.0816428219129395","0.3093632449382165","0.5284624837144598","-0.0467754059262113","0.0117444908974866","0.3847503757199391","0.8213152831904361","-0.1254638750279997","-0.3462825457148348","0.3460599365677947","0.6811301900598540","0.5888557425279535","-0.0122854393329289","0.9649414710140009","0.2205611116313296","0.4807644111265756","0.4267226012999520","-1.1403428532378883","-0.8390002004783475","-0.5555596980937016","1.3174747690687076","0.6863183460035524","1.1417438800810904","0.8293756472788645","0.8885172072515015","-0.3775276359161668","-0.9211206597170741","0.9949978006003984","-0.3780226100811326","-0.2390807643177012","0.1289557825504014","-1.0788856780917228","-0.4517488734002021","-1.4191982421627877","-0.6066177743590531","-0.2566574059290988","-0.7397483549274561","1.0392238626392185","-0.1332357463317061","1.5379109987035260","-1.2934465217339747","0.0230207097594496","-1.2158377804429494","-1.0390696823017020","-0.8469686237834549","-0.3125273658773741","-0.3403098108445948","-0.3353184380621219","-0.4997192217330028","-0.7249045027054084","0.5359693318050068","-0.2912225123914995","0.7034991306814922","-0.5621024038170560","0.0828714065769419","0.8244368950002114","-0.4492981319333060","0.0305403867565472","0.4438064992315368","-0.6315930703828489","0.0796126375445005","-0.2632841773331884","-0.6929378920136831","0.4106690330926714","-0.2140516868948482","-0.7108127773525491","-0.1744180198618061","-0.8293362382621564","-0.6843685930921084","-0.8024429205091408","0.5195537376820073","0.4791152778909492","0.4482905164163764","0.5638966374557972","-0.8377025983566852","0.8242888558724537","-0.6344132027742725","-0.7081537753444802","-0.2584976895415636","0.1334514429061937","-0.0026000500909860","-0.1307871821095052","0.3400954370426872","0.4806725678858677","0.3752535912497656","0.7236445546470408","-0.5588179225136086","0.3347263931719852","-0.4449926234114041","-0.8845136926805807","-0.1851076127117918","-0.8912331586519155","-0.3330378764304961","-0.6237228943728320","0.1649822623021650","-1.0388038278931375","-0.0454312849573141","0.5513557084026050","0.2209641544233427","0.0515792301251213","-0.4271925381676907","-0.5392217235212621","0.7473855829993714","0.6636322565104291","-0.7770576447646929","-0.8195161067785370","-0.9291981121128584","0.7450819965876949","-0.5736918672298697","0.0143188688826717","-0.2208710932552027","-0.8067750161789515","-0.5641783325695760","-1.3250933276705214","-0.6481743690585879","-1.0823989523838695","-0.7742062025187331","1.2107257255697347","0.1961915706289930","1.1819601084445985","-1.2089333410473135","-0.7922240946241071","-1.1348476704612351","-0.0853815799675019","-1.2240748738711637","0.3213054310235652","-0.8153438471211634","-0.0988525984916489","-0.8123290204032024","0.7339845356951096","0.9106630949355873","-0.1583874824488645","-0.4727268546791278","-0.6847750462168724","0.3627182334795383","0.2090906897167373","-0.7584907209252981","0.1281850346385021","-0.3949247858116646","-0.8993765530555917","0.6228276817891443","-0.0418147363540518","0.7095550379536995","-0.4822195491704542","-0.8105210727608579","0.2782217785092520","-0.0906220820142138","0.9761797192860178","1.0517265211502824","-0.0894544129093409","-0.7500507723332210","0.2236011309365219","0.6135390763053015","-0.5077632202983759","0.2920654104317805","0.8446384466312558","0.5031750857258517","-0.1855056797949122","-0.9489772703962120","-0.6570607265139011","0.6792650878393438","0.0974133815214426","-0.2562405771856645","-0.2803100585575448","-0.3900525866946491","0.3487008870452061","0.9586854495080054","0.0934628816721902","0.7245692523725145","0.3523977529168181","0.2753954922588983","0.3345947764489971","0.6258173564177472","-0.5079383864838606","0.4679844231008712","0.9375322380111777","0.6448674001738927","0.2271728450102589","-0.7935739121588466","-0.6738741688088436","-0.7484645466961575","-0.3064186982089445","0.4133621689471855","0.5355171657767908","-0.3596773792296282","0.6558095808605417","-0.0236164926381156","0.0943202069846329","0.0126939831814518","-0.6568518936038351","0.9190551277359134","-0.6417943561407255","-0.6106416607630356","0.0406858310770014","0.5756263114487066","0.5858002948370257","-0.4160256605126570","-0.6223179986375038","-0.6687763210650459","-0.5500428361381651","0.4773086908950175","-0.5867579117120184","-0.4583190042695608","0.1539006102802887","0.6410197975209014","-0.2905584964993389","-0.5543250784725348","-0.6191572086454125","0.9637588761439495","0.6930285525763576","1.2379721885013788","0.8596789831382544","0.9371940220506175","1.2986531338906102","1.1801107967697097","0.2488082258513568","-0.3413124618814598","-0.9748078391862391","-0.5791157101081179","0.4199464848471520","1.2923007511049455","0.8234256652892034","-0.1046792020132813","0.7220555247886143","-0.4535770675949855","0.6885316996250578","0.4857545600528892","-0.2526332981106076","1.2364588058287850","1.1349205485052744","-0.4964187268466663","-0.4355594428906249","1.4275306923604260","-0.4228592500482720","1.1417963449206041","0.9155544734466856","0.0155657558367887","-1.2772268954743863","-0.7817744008751890","-0.9426500564755572","-0.0607352333306168","0.4381776650261708","1.0207262593011023","-0.6010124683799213","0.3007120166934595","-0.6588586753093447","0.2906687871773377","0.8816391873832534","-0.5524136907958739","-0.6309889692146597","-0.7798750868832965","0.1566284425111287","-0.8908906032931763","-1.3612351649231519","0.1499028909159484","0.1134283053869320","-0.9001572654422089","0.1869918731372350","0.5032267346598372","0.4679905886495326","-0.7393096124902786","-1.0821907638513086","-1.0485897380270168","-0.5332486512936868","-0.4188782439664207","0.7690976969233043","-0.9004440525714157","0.2563638781979298","-0.3992810614320929","-0.5625616989856341","0.2937029006089375","0.2604524381506060","0.6622089544501724","0.6394095544394011","0.1744164326142228","0.0744299911444447","0.3749664769771698","0.3393043367453065","-0.7752133984393902","0.4430555437557115","0.6406591107739063","0.5169244109867461","-0.2784680934479941","-0.7222404603596642","-0.5053605257392158","0.1352011557383114","-0.7182595662909941","-0.6272049150600621","0.5636698361588705","-0.1585773568935263","-0.7462118675227564","-0.7302347969776866","0.6940717488818263","-0.1224113350641051","0.7013347961217993","0.4373749749602587","0.5043546970484698","0.5598363158239287","-0.3130258071228693","-0.3606035816574204","-0.4746314199611796","-0.3094446244690014","-0.4422089158705366","0.3332722132643242","0.6473739195436897","0.1663605316881974","-0.4385248181702487","0.6910654910446938","-0.4833739025299444","0.0616171638107823","-0.7415490696082866","-0.7786927015159125","-0.2668300000000000","0.6522532562217775","0.6960683338364400","0.8139466104529653","-0.0348446700813428","-0.8481541916814549","-0.2228025961679136","-0.1644252784911033","0.5724733621479924","0.8548488573209384","1.5627438488920257","2.1278478981614443","-0.1649525149851104","0.5285881983782571","1.4493804129647980","1.7671440905226869","0.0510727682755282","1.1281020418484246","0.1292994521351940","0.4062810709334090","1.5809926960073781","1.7821568943141929","1.8340538106066148","0.9806984393264960","1.0313754214409833","-0.1554825679669906","-0.9216298796243247","-0.8827782887915924","0.4717249202622959","-0.0988734807819712","0.2547558290037379","0.2636141489340028","-0.2041216973282623","-0.6004814162622114","0.1673980713536233","0.6207839461348639","0.1569249575582469","-0.4485640875383735","-0.0741016991741719","-0.3222937259023723","-0.6067990547318556","0.3692129266059185","-0.4828273603248220","0.3604097470129894","-0.2929619616880427","0.3033379388137405","-0.4148800000000000","0.2191883087697488","-0.1484141648087641","-0.8969171321322965","0.6030440052117035","-0.8358411783712902","0.1798342978148931","0.0742224088250381","-0.4293552022694579","-0.8267037809892279","-0.2121019260539251","0.0398702336774868","1.0004441066430678","0.6222614888713950","-0.8331177027423859","0.6206921533130294","0.9522473134086563","0.2770072501534009","0.8754362829256264","-0.2744417945396034","0.2589965167760405","0.1126804507301675","1.3729643972829748","1.1446324890013199","0.0625599171124605","-0.1321755775803906","-0.3966314490320179","1.4731559094688792","1.4989403704550461","2.0450974257850078","-0.1523155361380480","-0.6443528617002129","0.6509032388529445","3.0811643845420859","-0.2878978870897731","1.1734615698498711","1.4442713862803460","0.8000104763301310","1.6614129826314012","1.4458586295849389","1.9064089872329812","-0.2947306580853734","0.8037779521491595","-0.2118100000000000","0.6885500000000000","-0.5666709740057438","-0.4920974625921263","0.3985376201999717","0.3249715155395432","0.2319924748257241","0.6915717308856333","-0.7190695490995855","-0.1671200000000000","-0.6146089067688638","-0.8332612622451451","-0.5890900000000000","-0.4542955657000606","-0.3837788359705078","0.4659693699825480","0.6078644755160147","-0.2607775760567278","0.8318761830230480","-0.5931367822714407","-0.0579237420579783","-0.9016646484818410","-0.7094524657693972","0.2904604026499805","-0.1466805783115423","-0.5980354536782472","-0.5042074491238558","-0.7175355337938055","0.2829601133958643","-0.1517124274034139","0.1584406916047113","0.5290642423262311","-0.1586549720318504","-4.9668098869161978","-0.4453348432114127","-0.0722337790117222","-1.9472987899793597","-5.8168390495843560","0.0517004805464094","0.5314659282041887","0.6742300202882638","-2.2614193748723083","0.3693032500770287","0.5554728282263720","-0.5434875363490370","-2.7128696883034693","0.0095478473197467","0.6477820337658048","-0.0689202583251444","-2.4088473471247637","0.8109668962359242","0.8082699966121865","-0.6385662076518345","-2.2080730452433932","-0.0888852201888824","-0.7350532940964319","-0.4895885487807681","-1.7369438673548696","0.8657238771160313","0.1418907135440734","-0.8437016884447336","-2.0552781375637665","0.1917485402792689","-0.6889816660162754","-0.8832668225543208","-2.5992708165851823","0.3570007878164296","-0.8503717864087676","-0.5981394250789292","-3.1217056662348894","0.7969108370258802","-0.8148827664450319","0.0792707524633040","1.6497885572184523","0.4844315324679230","-0.4266709448032394","-0.5094760587822818","2.0465257580951483","-0.7336131770324581","-0.8144433152699573"]}