0.27685282, 0.02283682, -0.0713933, 0.5188758, -0.08704707, -0.31449786, 0.5603363, 0.20840049, 0.14321536, 0.03805901, 0.083864905, -0.08339839, 0.1862553, 0.07190734, -0.10341542, -0.01667296, 0.87648016, 0.2926346, 0.5559582, -0.535062730.034196496, -0.037479755, 0.07902934, -0.28491774, 0.0654096, 0.50206614, 0.4494742, 0.5078541, -0.23224248, 0.06668624, -0.23391211, 0.6119139, 0.062554635, -0.3193429, 0.03212581, 0.42898235, -0.5848101, -0.041951545, 0.0076553067, 0.84935080.023556411, 0.004548817, 0.067608826, 0.6366406, 0.550852, 0.38381624, 0.21993583, 0.021155655, -0.09194081, 0.38323054, 0.0039155935, 0.012965317, -0.50871056, 0.08603212, -0.5502166, 0.57569337, -0.15784135, -0.031150483, -0.18473421, 0.8442697-0.39345604, -0.010110891, 0.47997063, -0.55155706, 0.02262976, 0.11582349, -0.0038963312, -0.40753466, -0.58945715, -0.5110934, 0.07802478, -0.10673732, -0.09851601, 0.6422329, 0.34421012, 0.05744396, 0.04615505, 0.06828498, 0.1700835, 0.218292130.14325239, 0.032866146, 0.093532786, 0.0009650196, 0.54421234, -0.24193822, 0.10264063, -0.07884033, 0.044622354, 0.21301687, 0.30568382, 0.19412747, -0.42158794, -0.16059068, -0.5746549, -0.26843837, -0.4757141, -0.25278127, -0.08580882, 0.442848920.32064742, -0.13426837, 0.0072116046, 0.10537255, -0.31575033, 0.030856596, -0.33156753, 0.26120237, -0.30594963, 0.59972537, 0.45804042, 0.07782369, -0.3981782, -0.47352773, -0.49632427, -0.248413, 0.41533938, -0.2430713, -0.2986813, 0.28386137-0.20543861, 0.21846129, 0.10532346, -0.14297408, 0.3904944, -0.25278148, 0.16697009, -0.18202235, 0.20511152, 0.2613874, -0.21553004, 0.25638053, 0.3609986, -0.2416478, -0.21278706, -0.099050485, -0.15795718, -0.22831236, -0.15461424, 0.21078236-0.06544289, -0.10481553, 0.18161197, -0.22832392, -0.36417243, 0.35133308, -0.29226798, -0.20837235, -0.23583148, 0.7432864, -0.06305775, -0.04637757, 0.18681163, -0.15582368, -0.1710765, -0.21769294, 0.58382905, 0.35433823, 0.2442187, -0.1058349760.13582392, -0.13746451, -0.048702702, -0.10163756, 0.48268947, -0.20168503, -0.4049258, 0.666395, 0.4615222, -0.22571848, 0.035369687, 0.32225588, -0.25267446, 0.032173507, -0.1622247, -0.16559187, -0.5175724, 0.2440682, 0.094033085, 0.20857501-1.2178359, -0.3232501, 0.23543465, 0.1992538, 0.027589701, -0.27401254, -0.20804596, -0.32234347, 0.046134476, -0.4330408, -0.34672597, -0.15836687, -0.19069508, 0.38393486, 0.18193749, -0.23188102, 0.34570962, 0.18906793, -0.11845404, -0.29093802-0.27131924, -0.039530683, -0.13808054, 0.5933188, 0.29192546, 0.093653634, 0.39503053, -0.09956273, 0.6427793, 0.3917911, 0.3157209, 0.06670325, 0.13911487, 0.1789644, 0.36442968, 0.5462903, 0.79580843, -0.39435735, 0.022456208, -0.284468261.0493104, -0.27824685, -0.25350448, -0.03802582, -0.32520795, -0.31899995, -0.34218216, 0.055410385, -0.2909359, -0.3962941, -0.016239552, -0.38093278, 0.021707637, -0.034024067, 0.3396213, 0.21420841, 0.17997742, -0.15237741, -0.010271325, -0.410762880.10836893, -0.40389577, 0.05170982, 0.15430214, 0.4761588, 0.6726919, -0.026483905, 0.5796292, -0.055194505, 0.14612703, 0.40776432, -0.11500914, -0.30061144, 0.10520073, 0.3732204, 0.29308623, -0.35802874, -0.1838345, 0.13284084, -0.149939390.24353778, 0.027421884, 0.32999417, 0.32125112, 0.3791385, 0.23453794, 0.65221053, -0.4181351, -0.10146227, 0.76800907, 0.35635307, 0.1987016, -0.00815675, -0.35558334, 0.020047178, -0.11191081, 0.47526175, -0.1153823, 0.24521706, -0.526651140.7576761, 0.35591093, -0.25095958, 0.10147813, -0.36072943, 0.3075057, -0.34018582, -0.377372, 0.29559094, -0.09525503, -0.18488193, -0.1697126, 0.09113018, 0.46133932, 0.04641523, 0.05640774, -0.05344328, -0.36156192, 0.51794827, 0.029421568-0.35780066, -0.20832935, -0.31722587, -0.27764365, 0.089447305, 0.10906257, 0.19369619, -0.27499306, -0.6747525, -0.08316976, -0.5946774, -0.29564813, 0.1612002, 0.30115813, 0.17058232, -0.5486217, -0.2057414, -0.34193075, -0.47256407, -0.4742247-0.4435947, 0.13912798, 0.40146822, 0.12123773, 0.3388809, -0.5038029, 0.02315238, -0.83549875, 0.24459788, -0.64756924, 0.2547716, 0.29292348, 0.6249517, -0.41983098, 0.36314562, -0.093940180.19144134, 0.34825775, -0.5310326, 0.51730555, -0.18083721, -0.12571457, -0.51815635, 0.19686806, -0.03891571, -0.16057032, -0.46736556, 0.13295774, 0.45092154, -0.08357887, 0.085101284, 0.26602978-0.056528986, 0.18838862, 0.045841984, 0.78272474, -0.44040155, -0.37776998, -0.49556497, -0.76530194, 0.1264043, 0.8342074, 0.16320859, 0.34770146, 0.22179645, 0.19222257, 0.39678687, 0.90119666-0.6675729, 0.26778793, 0.27237538, 0.3840494, 0.59934646, 0.4224187, 0.34732142, 0.00021323474, 0.21042572, 0.047937196, -0.19775331, -0.43617195, -0.28521332, -0.19354627, 0.22072648, 0.119462450.05855795, 0.3895027, 0.6762534, -0.11069775, -0.2273369, 0.19073385, -0.6439601, 0.6770698, -0.16046949, 0.36267716, 0.17837422, -0.23702046, 0.5737566, 0.23361963, -0.58406585, 0.27640057-0.41227686, 0.48503503, 0.512797, -0.41267765, 0.57537717, 0.28168163, 0.26739946, -0.376283, 0.38995048, -0.17935918, -0.24978879, -0.04813395, 0.07313989, 0.27168077, -0.087427184, -0.5822892-0.24811508, 0.31965694, -0.04419412, -0.037745968, 0.54527175, -0.49259558, 0.06075765, 0.012500136, 0.4905176, -0.3846873, -0.36876404, 0.11987563, 0.47965315, 0.37403914, -0.42632577, 0.168867420.6053649, 0.14663024, 0.5836549, -0.50297076, 0.34055293, 0.23084527, 0.26293024, 0.5551496, -0.74669445, 0.3964048, 0.89935124, 0.026155394, -0.100595176, 0.68035257, -0.2532021, -0.37228933-0.075853296, -0.46015185, -0.6454904, 0.78959155, 0.41626385, 0.699508, 0.06214583, 0.213189230.36539826, -1.333233, 0.06736727, -0.610584, 0.6589809, 0.23972559, -0.12018264, 0.5298915-1.39268, 0.2533514, -0.9797146, 0.18325225, 0.60025376, 0.3940339, -0.52853256, 0.8663891-0.6220034, -0.3493072, 0.58237875, 0.6086881, -1.1894758, 0.03194515, 0.5683115, -0.20612545-0.7713875, 0.511819, 0.37082142, -0.24784538, -0.57996655, 0.12273677, -0.7259917, -0.62098960.13335222, 0.28732964, 0.41790918, 0.09376002, 0.73063886, -0.8326156, -0.68975914, 0.10046373